radio -0.926885 -0.303121 -1.095489 -1.714174 -1.355947 0.262678 -0.020460 -1.186782 -0.163720 1.673134 -0.794818 0.349080 0.124320 -0.788927 -0.574408 -0.085758 -0.249919 1.461449 0.117497 0.814838 0.273136 -0.136903 -0.604982 1.092819 -0.512970 -1.481497 -0.877212 0.214095 0.188434 0.082079 -0.395506 0.055165 -0.445876 -0.336125 0.684097 0.310758 -0.794476 -0.802380 0.736639 -0.165920 1.216922 -0.135323 -0.569978 0.520615 -0.130077 -0.755124 -0.425876 -0.608567 0.625729 1.980920
live -0.426712 -0.450917 -0.545884 -0.356956 -0.409236 0.014752 1.029195 -1.216665 -0.273810 -0.566752 0.207248 -0.632012 0.137686 -0.776627 0.307104 0.055255 -0.487792 0.307926 0.562822 -0.392772 0.479643 -0.220010 0.305897 0.280733 0.021503 -1.969087 -0.388845 -0.071715 0.192309 0.365839 0.370260 0.349225 -1.812915 -0.309241 0.788625 0.126695 -0.184117 -0.213782 0.672865 -0.052123 -0.519033 -0.013498 -0.611190 0.206903 0.547409 -0.253345 0.237955 -0.420189 0.499280 2.106361
august -0.332078 0.350127 0.590513 -0.264425 -0.311664 -0.489954 1.001382 -0.828516 0.733393 0.502255 -0.084399 -0.615754 0.271377 -0.752129 -0.818030 0.022077 -0.493324 0.176197 -1.103378 -0.688033 0.628753 -0.101801 -0.487086 0.828696 -1.074050 -1.281447 -0.331667 -0.424089 0.653321 0.437218 -0.901700 1.004673 -0.087591 0.211748 0.967020 -1.246392 0.777400 0.857565 -0.114102 -0.247433 -0.491073 -0.829728 0.319896 -0.356617 -0.201563 -0.248880 0.866878 0.358845 0.180668 1.278679